{"numLayers":2,"numFilters":4,"filterSize":3,"learningRate":0.02,"flatSize":100,"convLayers":[{"filters":[[[[0.699540235966942],[-0.3287552836099571],[-0.14071923948630796]],[[0.10841018638142981],[0.01968355543789605],[0.40258305392184945]],[[0.6466070272752252],[-0.15797563279553203],[-0.08754072613982576]]],[[[1.1142040238699102],[0.42550383012066473],[-0.18322114584856622]],[[0.869721733504071],[0.2508260502968653],[0.5236564325340283]],[[0.13235411713594483],[-0.5870715143556559],[-0.37857735625739747]]],[[[0.571910870840507],[0.07946442187313285],[-0.5077350562944307]],[[1.0887250053783033],[0.4254805113766829],[0.7604706952426431]],[[-0.25732645728979275],[1.231412478404179],[-1.0323274579998534]]],[[[0.5111666988851244],[-0.6708200804142077],[0.1767559736386516]],[[0.5349072985382486],[-0.10158092376444783],[-0.7178502081866422]],[[-0.5844111007716244],[0.3536526766423489],[0.13061139290990822]]]],"biases":[-0.2300136321654649,-0.07389954535573579,-0.07564389175190736,0.10645894729970194]},{"filters":[[[[0.2987107629189366,-0.08888734553564619,0.16596650295592708,-0.15499109115150358],[0.40276300035640955,0.6314547371693978,0.1547822532496202,0.31232011603095833],[0.29147001645858345,-0.14457036667555223,-0.4752193436556176,0.33342868341344273]],[[0.0227131957936349,-0.36789013662021985,-0.07793933482665154,0.14155971551049887],[0.7308128524602595,-0.03451363999976218,0.19470893383624874,0.11404416762750495],[0.036004234901280754,-0.27017743196229443,0.2975381060018745,-0.5714209159017283]],[[0.22413924073544933,0.01173349878107621,0.3007576084814327,-0.11966701190467757],[0.3050324270205099,0.38495619213005255,0.4761522987375114,0.19258345658011616],[0.21628035006777027,-0.1340471105620026,-0.5909760580823985,0.2323384329279969]]],[[[-0.0653167323903026,-0.11651861329128013,-0.27088978591706947,-0.06680020686465778],[0.08181395080466068,-0.1280882574758443,-0.08708677451085288,-0.15962372234039954],[-0.41120329158325236,-0.31158033141245606,0.0040297189443435815,0.17875972349006705]],[[-0.04003318978544508,-0.12921427356866447,-0.7851969604151166,-0.08490008192323863],[-0.198748912978322,-0.1106954228434691,-0.2810697407973323,0.2416273056831331],[-0.5512192434288482,0.14961779828644453,-0.24867221439521808,0.08310759143591799]],[[-0.0031764988951455144,-0.08932838748668172,-0.022544750306723246,-0.11015796441702372],[-0.3796581814395224,0.39974666281275684,0.20023935509502283,0.2734168060908149],[-0.07248653471041061,0.5768837701971457,0.4106429585311203,-0.1868727834853475]]],[[[-0.07730333375588778,0.0548278843521366,0.4351554353011108,0.09750878710332464],[-0.053346550717864975,-0.6066738167444419,-0.05506271938340032,0.10384261950410509],[-0.22700773886369846,-0.4138631379465524,-0.46122394598394517,0.13526903056993408]],[[0.21272084002624794,0.3612217352824065,0.01822553466567494,-0.20084391127428203],[0.12131372260362024,0.1066301441310085,-0.20161695422638543,0.0026945817455431274],[0.10722876516011656,0.0698577450021979,0.2552768916030313,-0.16963494493198394]],[[-0.21810094508250352,-0.19681234628750371,-0.4861195821464568,-0.16397783874832988],[0.24386758618949364,0.4731700331085797,0.10770680674766094,0.052496305445676884],[0.3262638614337812,0.3250537910452882,-0.33540700585652783,0.20991230700217609]]],[[[0.17891351615682188,-0.0984321797080026,0.11880709826773805,0.19157790591664892],[0.1094086968859646,0.4682619004969213,0.5229228551529559,0.04521504325135855],[0.1497057657234364,-0.1275842397574479,0.5913323657598868,0.17711814998297945]],[[0.16674884213470645,-0.16584410332523977,0.12460698437143243,0.32421951292480566],[0.09119146389570496,0.19407367674209855,0.22378294654430564,-0.007557833264745168],[-0.22768858580813964,-0.14552260624915664,-0.14690229144859332,-0.3929488981116886]],[[0.022104601473037902,-0.3838392273443149,-0.24812736490911624,-0.5243311563323328],[-0.07684134036229717,0.0017044996749330343,-0.3371882087852581,-0.5697536442707803],[-0.23765724563547588,-0.10705840949007647,-0.00789860228697721,-0.03053868506153146]]]],"biases":[-0.14608614804403638,-0.07267695687776006,-0.2824113906219588,-0.3115178660663374]}],"denseWeights":[[-0.14688601560160672,0.040643056620029656,0.04701816161861826,-0.24115213249805253,0.11701697993304558,0.1679261468884226,0.02131148715077423,-0.14484040870396056,0.1950163014827537,0.054172236845500835,0.1855678203881711,0.4560297362861128,0.21177042071858712,-0.2930340330523642,-0.21633864667666064,0.5615996479675163,-0.25474973866005535,-0.481010800979026,-0.0845698114322822,-0.36141145306967437,0.045613268977572737,0.24187210612461202,0.02224927336145492,-0.24199997349658459,-0.17577679063576873,-0.07193784563446742,0.4099326297485318,-0.14797874234519595,0.2603460023724963,-0.14241328354340188,-0.27508873876157813,0.4398039511999455,0.2094031024973536,-0.038024005709759764,0.11193989817016876,-0.05618829618766437,-0.28321984138838846,-0.1341254362687179,0.2158308544411873,-0.23812608062763885,0.18823127878736481,-0.0857587294054328,-0.16056953576087182,0.14316364211351978,0.0012646753430504065,0.13677066362326692,0.0166091807094093,0.19726288313610646,0.1952351835849324,0.0978631506586846,-0.06764718815754084,-0.24218555333123956,-0.08791070767200644,0.02761594982480188,-0.12470211193830052,0.01580793653596137,0.27480206505409943,-0.0027554611212611585,0.22364016985687415,0.41038751636964665,-0.03354286363085977,0.0959166701398396,0.06341976310895786,0.05626247538389718,0.12635337126718618,-0.16807145422282058,-0.04007436531381029,-0.02676386539209433,0.11633032463842835,-0.1328679168711429,-0.056289117688491215,-0.0781541787907814,0.12816018345111355,0.25009089115588423,0.015347771746955867,-0.12705055022186781,-0.11140856228928814,-0.0666826916623014,0.16344816300693776,0.27026122883411124,-0.3018612172615398,-0.2346061237633323,0.2785779976075972,-0.09083006378055405,-0.105700553135975,-0.13919781441565407,0.21971371743446233,0.176537462606137,0.28737924165337736,-0.2689400403486949,0.18140552325108464,-0.038640330337211676,0.37300935417369524,0.4550795675924322,-0.2959022110583197,0.06937609774016049,-0.42223080495411175,0.1718750115472207,-0.16935838477477194,0.037669111931903955],[-0.1063443478051782,0.10143010647589785,0.045988223310764,0.065375962691627,0.05962582153959783,0.06265916292465461,-0.15841369745893338,0.3710946317910019,-0.54714502173571,0.19924797944245826,0.1468818414356775,0.06291672124198397,-0.37864831637393315,0.17399203342284184,-0.18282139840581807,-0.09519704069366244,0.21022170275590268,0.08807139673746685,0.10058723086201782,0.30678508403260657,0.015553177775909276,-0.26404662422290087,-0.06906623056244682,0.5365993107014435,0.43925258250597277,-0.1610242641511287,0.37688836304852424,0.442300948994112,-0.20829773490968487,0.12670115318764874,-0.006272937555374258,-0.3786517261517818,-0.47651699541375675,-0.00594629625636162,0.022921519124858628,0.02099725299512275,-0.07022883013042658,0.035223155005407965,-0.22274485075800032,0.2753067556593179,-0.18614629328519985,-0.17894704603379005,-0.15583465172719677,-0.28198258194918996,0.17582369687330607,-0.03649470760689956,-0.3460241786756308,-0.17769806885428774,-0.2591772615399645,-0.20581506668614713,0.09264085899967624,-0.07739921110930552,-0.12871166626689537,-0.09413721347376909,0.015084952905577851,-0.3178986096328636,0.2043300110898774,-0.1475440752261115,-0.12913715176200513,-0.4723174799505474,0.07594122053941824,0.09645322187720493,0.0286541170955303,-0.22943061737806864,0.13193733107928424,0.06190760332134814,-0.5628370697203982,-0.12709179037642115,-0.12525378501563894,0.32323423625274594,-0.15632088758411508,-0.34180790184805726,0.037949360537795546,0.03022030202294648,-0.32666695445114824,-0.07505847957475778,0.35986090915956703,0.22279146924971321,-0.05708276781462451,0.039995307723580564,0.28207287803398706,0.11592771229375691,0.038748360866560756,0.3547957089008886,0.3141675399633564,0.1147044865745375,0.28446179577935954,0.23270638191162252,-0.2071260829420817,0.12913479346650056,0.06141616439126668,-0.42399278376901556,-0.3666567492906489,0.07583245892990449,0.062286650295709504,-0.05002242448190686,0.15294114183196225,0.24684221176732957,-0.1743321458662243,0.1890859415273132],[-0.04445413410070507,-0.06264449325482661,-0.10851427537372978,0.057932852235751155,-0.26158541408231484,-0.04001065570699014,-0.1931658474705526,-0.08550845075983497,0.004472135765645985,0.12344469109453271,0.09607051461985572,-0.03152677445816782,0.24489809666286644,-0.07194361685771106,-0.06456415721879116,-0.06859708839419155,0.2730194877298112,0.11674340777939876,-0.030285958925867645,0.1322646701108192,-0.08431750612093955,0.1800948018870147,-0.058522280319548314,-0.16768181150297118,-0.27474067692831394,0.0907172369220907,-0.27935570440428514,-0.4227769948800107,0.1534906946848738,-0.10107748125536746,-0.024859107920015132,-0.22838279325795355,0.16122411208616946,0.03126549737297918,-0.238696848562237,-0.024920656504621764,-0.002259123600988762,0.06793979474013445,-0.37348509289909326,0.214160225453814,-0.04805263394428756,0.26462629312938474,0.3640220490194066,0.0841791635496543,-0.32197625824262904,0.046058148299173984,0.31441729570292554,-0.1473937437539656,0.15953635164168117,0.027259153923237182,0.09954818199465702,0.12144847662162989,-0.0024099050257796314,0.2577077596007123,-0.1815654422175995,0.28481207539242254,0.0897424708190369,0.1804520787696382,0.029213703989126573,-0.08024131275330265,0.11880704117202594,-0.09122982526125173,0.21971557597622512,0.6452325225810879,-0.3060406800140136,0.15513097580373528,0.06810862584157829,-0.013600966061633437,0.5770031589273448,-0.1958124690900204,-0.043859622081170405,0.3944886388582002,0.15185807570198567,-0.4568559445235373,0.0864347905674955,0.09585955653556996,0.2805222512245103,0.009284400294308418,0.23209002500181752,0.1001292646363207,-0.03824026520626557,0.02781438151943773,0.0729736137650489,-0.017863935090972772,-0.2879553000238518,0.05542393569071047,-0.15390648386398884,-0.26270279569965954,-0.14771472084280673,-0.18898511423995343,-0.19661915783468809,0.2404686303118243,-0.28388837462244115,-0.3983536882747855,0.2154662659248813,0.17995597478495298,0.060514808719255936,-0.22508000173730053,-0.04405176546977106,0.005409182346587735]],"denseBias":[-0.024320970966182485,0.10681249283981613,-0.08249152187363283]}