{"numLayers":2,"numFilters":4,"filterSize":3,"learningRate":0.02,"flatSize":100,"convLayers":[{"filters":[[[[-0.6124908717227675],[0.5031577071438057],[0.3011019562602772]],[[-0.4221832400592288],[-0.42955161518255497],[0.20818064196405728]],[[0.30166690704928073],[0.9538655370598421],[-0.14516165332058142]]],[[[-0.2884117340460704],[-0.6943946761796216],[-0.1926003420989475]],[[-0.28235881651605405],[-0.5050671898296443],[-0.5952218949628896]],[[0.1671606690502718],[0.0994924189131728],[0.8468185426742162]]],[[[0.705436142726394],[0.2615446610057792],[-0.6997927993493037]],[[-0.253222728551969],[0.3525069170996119],[0.6008060428165968]],[[0.6926007351766402],[-0.368181027513616],[-0.34341994214434]]],[[[1.1199406988640828],[-0.7074824352861446],[-0.45060877981075276]],[[1.0935393298935252],[0.7460792598417691],[0.19740301760282128]],[[0.26727725653154044],[0.8287375590935105],[1.574985530203829]]]],"biases":[-0.049894773498120264,0.04894526605965825,0.09512368942878728,0.05805280568431562]},{"filters":[[[[-0.23741591056496106,-0.33163904023492613,-0.03979703232409218,0.36064829035507584],[-0.43158774818508644,0.059331115743237094,0.13707105422692714,0.9183140545622428],[-0.07579182090929684,-0.33523755574739084,0.03650828696173435,0.042568931254599894]],[[-0.20425981679742425,0.07268880833969321,-0.005353439962353277,-0.6263922002975197],[0.275864595900071,-0.32333043769820613,0.012765601723336736,0.02391345086703568],[-0.16366118040135755,-0.1544192729789903,0.8230122479467697,0.9964601916895085]],[[0.0897559022166067,-0.22852793761541015,-0.0077555892030534,-0.6293104190927968],[-0.20344089183706326,0.18349126096391366,-0.36384038502006216,-0.5670615713719646],[0.4553601536346992,-0.5359469434019779,0.07992972850898009,-0.24026520202663781]]],[[[0.2081216467289677,0.006461635210178759,-0.2832334005014086,0.5919177442923765],[-0.07215874830857687,0.009771741666263606,0.6168221547241253,0.18398903666126507],[0.010755613291907383,-0.026916794950720534,-0.42634925426803894,0.11870061032362789]],[[-0.04066250133369565,0.050580356798121416,0.42025144692141836,0.9336254562139096],[-0.06636624318772866,-0.06114311587469367,0.40885064787518516,0.35249659877817713],[0.00495204423363395,0.25501928499510373,0.29639874742183153,-0.48160351698291065]],[[0.0376150623863631,-0.10467201470619751,0.0331925075205102,-0.10929776504090005],[-0.2713960299995832,0.6023523845513128,-0.07964323443389024,-0.4443234878164684],[-0.08337197495054705,-0.2913982423264203,-0.10789994783605607,-0.8222851859077005]]],[[[-0.25958634025651733,0.02792064865161983,0.3937159131303333,-0.1787929432839987],[-0.1505590294417333,-0.41918581531486965,-0.1777970419481406,-0.39359675147939205],[-0.08020014573861006,-0.00660655350144847,-0.14749323203324816,-0.06192058989074952]],[[-0.0996478143603451,-0.02215505687495694,-0.21658310408535783,-0.31170076799378105],[0.0470481937067942,0.1001347608111447,-0.028409349378158054,-0.6117032853140072],[-0.1983533641474655,-0.4779657792764784,-0.08965338501973769,-0.6671960868919976]],[[0.33758468331409586,-0.05109295496600913,-0.29089807351777464,0.15725316624133606],[0.4895561276051262,0.3697123058694353,-0.13691620426619575,0.40422814560521814],[-0.08218310098298356,0.36127127558691174,0.29314222702897974,-0.45608861593017586]]],[[[0.015602581165193863,0.11835864379760358,-0.07684877000031463,-0.696675441002906],[-0.04527396799736461,0.2986489216905567,0.4964377617675124,0.08226792189344474],[0.253467703189225,0.2944301673747232,0.11617890646673952,0.3728120810934424]],[[0.0625775668299031,-0.5369527434380282,0.050205153727576675,-0.15283533207715735],[-0.14721173784239117,0.006096303601595414,-0.5169756249350219,-0.8513025161200727],[-0.2776772197057297,0.09141397834696517,0.12410428308208504,-0.3789745012153475]],[[-0.2584797963215157,-0.42659710757951796,0.5195453279736767,0.22639981204913925],[-0.04804963288592922,-0.11785619865878096,-0.2804233751568524,-0.08928331394898409],[-0.43296343640705814,0.08305392802968921,-0.34395924094638314,-0.24843017640380458]]]],"biases":[-0.10669012883487713,0.2390542161464694,0.4370848408259347,0.20227331382690006]}],"denseWeights":[[-0.5638548118891895,-0.03125193043059085,-0.4413141123120758,-0.2162696096384421,-0.18047077758505123,-0.14889249881027417,-0.48528632222150286,-0.2894560001295469,0.1755158198183325,0.4040260394996304,-0.271833003181974,-0.15498126231378292,0.34775249816731824,0.18671825978260775,0.08370618833871513,0.02396333049944521,-0.2515605398987795,-0.9540086117396429,-0.3759896561239062,0.6042918263407203,-0.3428890472400863,-0.291866893829876,-0.12114507271634646,0.036374635594298585,-0.2626945158250959,-0.3842022638148188,-0.12634989530510632,-0.3637668630673221,0.5701278021936167,0.36003567882603266,0.03627020240058901,-0.2701929497559035,0.9041983155165492,0.20143685876264547,0.05926468045623462,-0.028028888057961415,0.2385072355378935,-0.26993663784710964,0.19292552825583784,0.2403309878467762,0.391583099918876,-0.11234091315794145,-0.027765688843222714,0.1684411686210967,-0.014944660224929506,0.0477071620335375,0.004544186465945,-0.060721107972608324,-0.07550714756424969,-0.1736271923201701,0.13766914841530822,-0.12586234927918546,0.13853846709872297,-0.1526856751085874,-0.20183858871320556,0.2120742659862974,0.4042962713219064,-0.22218935359361688,-0.1471053569656956,0.11028579133273389,0.10819427868936976,-0.033451604733220675,0.1117040529402185,-0.13467054626876704,0.036750085808234065,0.24383362591233168,0.4720173429365676,-0.03750375511545068,-0.1722252013213254,-0.3652503709018267,-0.18376296562476221,0.2070087220124331,-0.17230860976815807,-0.21905868043365567,-0.47790645425224787,-0.058204131505756145,-0.3728941704626036,0.4627019521214056,0.03337847939132056,0.1114498806553578,-0.05430162957695463,0.0824596848747263,-0.03799193705887112,-0.2623299450782507,0.23878571073691007,-0.5345321648176538,0.19086095472530923,-0.1741228108069599,0.3609135541669265,0.11931174723351844,0.12662134714567785,0.24032993635256283,-0.5377060253375043,0.21400218184965847,-0.31278020996790634,0.11863316388161636,-0.3773510781574072,-0.13429034172406795,-0.0728538824129178,-0.021696670201829946],[0.42629352059580305,0.23938804415467246,0.30640277920746234,0.18179074855919558,-0.2475005624686183,0.2504713351957323,0.40007011161667805,0.3376479596694482,0.027090193914391072,0.060499728346027765,0.13765329912261126,0.20686927105513025,0.015761685265908695,0.100163985988481,0.017300026712085692,-0.16705040679477123,0.4079151190671739,0.4303744729949795,0.291595395628762,-0.1763581371498413,0.4947403557014735,0.2774480518050501,0.20755801904982593,0.24644654005255198,0.3610746243075315,0.42985749283053426,-0.013705962864167358,0.5876154986107922,-0.27517979234047735,-0.07564715129765447,0.03317661172078655,0.2266219853595929,-0.26953223683059674,-0.33213184378804933,-0.15544138381420636,0.19390186112022043,0.33179566965737506,0.16018771048263672,-0.39877007938479936,-0.06847695076763187,-0.3547425414433727,-0.2454535977323977,0.1602898750751343,0.02933805064098776,-0.13968441027603093,-0.13403355747467613,-0.2950271836776401,0.02402997696382913,-0.2599982775273834,-0.3044233414434589,0.01024625671242261,-0.23811843901840668,0.03643139305112633,-0.4527178735949424,0.26148147622024054,-0.09738556717821588,0.04897286633522189,-0.24174978170459419,0.07616803151841388,0.2122143678562751,-0.6447754804435117,-0.19032998596448011,0.03825258380164469,-0.2584736487027447,-0.21915839741808044,0.07738208997538651,0.11989921151465492,-0.341617614817089,-0.31222442501169434,0.11644578025169741,-0.008965127355373912,-0.08408292591970196,0.06750759126549853,-0.2836985423184826,0.394831797390126,0.29662199978667275,0.5485769851569787,-0.27135217860689026,0.2121854103056591,-0.004143153983098774,0.4978540491186069,0.42881325012452065,0.03264088839129491,-0.07824595730827162,-0.26081011934591714,0.6807566574702132,-0.17842956743225652,-0.06990386770314654,-0.39876638919416124,0.12675773799907802,0.3628084736441849,-0.19266853561567013,0.18638758413802714,-0.5333308851583306,0.18497271007664381,-0.17434646915334998,-0.214064613626396,0.270498812692496,-0.10289188784312352,-0.010526333103026465],[-0.15178191275453579,0.015360411205652314,0.16518054241610028,0.16437834121978603,-0.09189822760306825,-0.007250601038298065,0.04870342007657712,-0.12773937503873653,-0.2629778823487189,-0.3711028838827865,-0.03227075100406454,0.21807249666580783,-0.20588589061658624,-0.08190926743108601,-0.09048203593250524,-0.31976925259669126,-0.3180830872303007,0.3000155222810805,0.0911525661727974,0.05885344787166816,-0.22975974362538173,0.033591179877933905,0.1379173827012408,-0.15290982947775278,-0.09232793365619972,-0.41052337593688737,-0.1590903751010771,-0.2978260821724574,-0.2962734679927818,0.03333604463435546,0.09465858936334362,-0.3965628118321147,-0.31249844417703126,0.5895396958174555,0.10578987706500954,0.25513539180138,-0.2555223202659431,0.38661629652534546,-0.12249928866010783,-0.2428638074116395,-0.17783998729980766,0.15708567500726264,-0.023678039968092347,0.14066263913862745,-0.012284211419713968,0.0628488691020992,0.16219761186704199,-0.2429414674499359,0.10518514893599398,0.4238074301023572,0.11247582769393437,0.12800999453336062,-0.09446086293298028,0.5944864150490425,0.30100681067415946,0.1769782436054027,-0.1714194036419961,0.45825249765343007,-0.16216606738059505,0.07106327034410062,0.4522784908174041,0.25392200018316785,0.2611742097933579,0.025170118164542912,0.34096989344423556,-0.05125346821851806,-0.22998319569164657,0.23917321563276098,0.5069694834968126,0.2900634538778235,0.05359986837340261,-0.14658557715416026,0.2562003849035744,0.3793276472272593,0.027441577483077302,0.3704145788487432,-0.013077800926991371,0.1850468442117804,0.03188727748599047,0.020775881624167346,0.06290747141073551,0.06883295772997172,-0.04849644719833321,-0.152082529575391,-0.007849350182904405,-0.4903607434403366,0.06082932170081333,0.04836924739313244,0.3704574388004419,-0.04866214119447993,-0.07354331825044402,-0.06942647650632827,0.5750238221829156,-0.04226339899180066,-0.08244802709231326,0.2755498296911608,0.356199172867387,-0.2761277285745025,0.03093007421478826,0.09416085705442474]],"denseBias":[-0.3559705294938874,0.42190503193808404,-0.06593450244416223]}